digraph Tree {
node [shape=box, style="filled, rounded", color="black", fontname=helvetica] ;
edge [fontname=helvetica] ;
0 [label="Prefix Len <= 31.5\ngini = 0.87\nsamples = 4474\nvalue = [1, 1, 1 ... 1, 1, 1]", fillcolor="#c8c1f7"] ;
1 [label="IP-1 <= 100.0\ngini = 0.56\nsamples = 2246\nvalue = [0, 0, 0 ... 0, 0, 0]", fillcolor="#9587ef"] ;
0 -> 1 [labeldistance=2.5, labelangle=45, headlabel="True"] ;
2 [label="IP-2 <= 238.5\ngini = 0.04\nsamples = 53\nvalue = [0, 0, 0 ... 0, 0, 0]", fillcolor="#533de6"] ;
1 -> 2 ;
3 [label="gini = 0.0\nsamples = 52\nvalue = [0, 0, 0 ... 0, 0, 0]", fillcolor="#5039e5"] ;
2 -> 3 ;
4 [label="gini = 0.0\nsamples = 1\nvalue = [0, 0, 0 ... 0, 0, 0]", fillcolor="#5639e5"] ;
2 -> 4 ;
5 [label="Prefix Len <= 29.5\ngini = 0.57\nsamples = 2193\nvalue = [0, 0, 0 ... 0, 0, 0]", fillcolor="#9789f0"] ;
1 -> 5 ;
6 [label="IP-2 <= 18.5\ngini = 0.59\nsamples = 1845\nvalue = [0, 0, 0 ... 0, 0, 0]", fillcolor="#9b8ef0"] ;
5 -> 6 ;
7 [label="gini = 0.55\nsamples = 372\nvalue = [0, 0, 0 ... 0, 0, 0]", fillcolor="#9486ef"] ;
6 -> 7 ;
8 [label="gini = 0.6\nsamples = 1473\nvalue = [0, 0, 0 ... 0, 0, 0]", fillcolor="#9e91f1"] ;
6 -> 8 ;
9 [label="IP-3 <= 100.5\ngini = 0.43\nsamples = 348\nvalue = [0, 0, 0 ... 0, 0, 0]", fillcolor="#8271ec"] ;
5 -> 9 ;
10 [label="gini = 0.6\nsamples = 141\nvalue = [0, 0, 0 ... 0, 0, 0]", fillcolor="#aba0f3"] ;
9 -> 10 ;
11 [label="gini = 0.27\nsamples = 207\nvalue = [0, 0, 0 ... 0, 0, 0]", fillcolor="#6c59e9"] ;
9 -> 11 ;
12 [label="IP-2 <= 20.5\ngini = 1.0\nsamples = 2228\nvalue = [1, 1, 1 ... 1, 1, 1]", fillcolor="#f6f5fe"] ;
0 -> 12 [labeldistance=2.5, labelangle=-45, headlabel="False"] ;
13 [label="IP-3 <= 22.5\ngini = 0.87\nsamples = 345\nvalue = [0, 0, 0 ... 1, 1, 1]", fillcolor="#c9c2f7"] ;
12 -> 13 ;
14 [label="IP-3 <= 13.5\ngini = 0.75\nsamples = 245\nvalue = [0, 0, 0 ... 0, 0, 0]", fillcolor="#b1a7f3"] ;
13 -> 14 ;
15 [label="gini = 0.98\nsamples = 53\nvalue = [0, 0, 0 ... 0, 0, 0]", fillcolor="#ffffff"] ;
14 -> 15 ;
16 [label="gini = 0.59\nsamples = 192\nvalue = [0, 0, 0 ... 0, 0, 0]", fillcolor="#998bf0"] ;
14 -> 16 ;
17 [label="IP-4 <= 4.0\ngini = 0.99\nsamples = 100\nvalue = [0, 0, 0 ... 1, 1, 1]", fillcolor="#ffffff"] ;
13 -> 17 ;
18 [label="gini = 0.0\nsamples = 1\nvalue = [0, 0, 0 ... 0, 0, 0]", fillcolor="#e56d39"] ;
17 -> 18 ;
19 [label="gini = 0.99\nsamples = 99\nvalue = [0, 0, 0 ... 1, 1, 1]", fillcolor="#ffffff"] ;
17 -> 19 ;
20 [label="IP-3 <= 3.0\ngini = 1.0\nsamples = 1883\nvalue = [1, 1, 1 ... 0, 0, 0]", fillcolor="#fffeff"] ;
12 -> 20 ;
21 [label="IP-4 <= 158.0\ngini = 0.67\nsamples = 23\nvalue = [0, 0, 0 ... 0, 0, 0]", fillcolor="#d3cef8"] ;
20 -> 21 ;
22 [label="gini = 0.59\nsamples = 18\nvalue = [0, 0, 0 ... 0, 0, 0]", fillcolor="#9d90f0"] ;
21 -> 22 ;
23 [label="gini = 0.0\nsamples = 5\nvalue = [0, 0, 0 ... 0, 0, 0]", fillcolor="#aee539"] ;
21 -> 23 ;
24 [label="IP-1 <= 100.0\ngini = 1.0\nsamples = 1860\nvalue = [1, 1, 1 ... 0, 0, 0]", fillcolor="#ffffff"] ;
20 -> 24 ;
25 [label="gini = 0.0\nsamples = 1\nvalue = [0, 0, 0 ... 0, 0, 0]", fillcolor="#5039e5"] ;
24 -> 25 ;
26 [label="gini = 1.0\nsamples = 1859\nvalue = [1, 1, 1 ... 0, 0, 0]", fillcolor="#ffffff"] ;
24 -> 26 ;
}
