digraph Tree {
node [shape=box, style="filled, rounded", color="black", fontname=helvetica] ;
edge [fontname=helvetica] ;
0 [label="IP-4 <= 213.5\ngini = 0.79\nsamples = 2080\nvalue = [44, 903, 880, 617, 501, 281, 17, 13, 10, 10]", fillcolor="#fffffd"] ;
1 [label="IP-1 <= 83.0\ngini = 0.79\nsamples = 1926\nvalue = [43, 820, 844, 559, 453, 276, 17, 12, 10, 10]", fillcolor="#fefffd"] ;
0 -> 1 [labeldistance=2.5, labelangle=45, headlabel="True"] ;
2 [label="Prefix Len <= 31.5\ngini = 0.09\nsamples = 41\nvalue = [0, 2, 63, 1, 0, 0, 0, 0, 0, 0]", fillcolor="#81e642"] ;
1 -> 2 ;
3 [label="gini = 0.0\nsamples = 37\nvalue = [0, 0, 58, 0, 0, 0, 0, 0, 0, 0]", fillcolor="#7be539"] ;
2 -> 3 ;
4 [label="IP-3 <= 92.5\ngini = 0.53\nsamples = 4\nvalue = [0, 2, 5, 1, 0, 0, 0, 0, 0, 0]", fillcolor="#bdf29c"] ;
2 -> 4 ;
5 [label="gini = 0.61\nsamples = 3\nvalue = [0, 2, 3, 1, 0, 0, 0, 0, 0, 0]", fillcolor="#def8ce"] ;
4 -> 5 ;
6 [label="gini = 0.0\nsamples = 1\nvalue = [0, 0, 2, 0, 0, 0, 0, 0, 0, 0]", fillcolor="#7be539"] ;
4 -> 6 ;
7 [label="IP-2 <= 16.5\ngini = 0.79\nsamples = 1885\nvalue = [43, 818, 781, 558, 453, 276, 17, 12, 10, 10]", fillcolor="#fffffc"] ;
1 -> 7 ;
8 [label="IP-4 <= 184.0\ngini = 0.5\nsamples = 14\nvalue = [0, 4, 4, 16, 0, 0, 0, 0, 0, 0]", fillcolor="#88ef9e"] ;
7 -> 8 ;
9 [label="gini = 0.43\nsamples = 13\nvalue = [0, 2, 4, 16, 0, 0, 0, 0, 0, 0]", fillcolor="#7bee94"] ;
8 -> 9 ;
10 [label="gini = 0.0\nsamples = 1\nvalue = [0, 2, 0, 0, 0, 0, 0, 0, 0, 0]", fillcolor="#e2e539"] ;
8 -> 10 ;
11 [label="IP-1 <= 182.0\ngini = 0.79\nsamples = 1871\nvalue = [43, 814, 777, 542, 453, 276, 17, 12, 10, 10]", fillcolor="#fffffc"] ;
7 -> 11 ;
12 [label="gini = 0.79\nsamples = 1555\nvalue = [40, 683, 606, 462, 381, 240, 15, 9, 7, 7]", fillcolor="#fefef7"] ;
11 -> 12 ;
13 [label="gini = 0.77\nsamples = 316\nvalue = [3, 131, 171, 80, 72, 36, 2, 3, 3, 3]", fillcolor="#f1fcea"] ;
11 -> 13 ;
14 [label="IP-2 <= 18.5\ngini = 0.74\nsamples = 154\nvalue = [1, 83, 36, 58, 48, 5, 0, 1, 0, 0]", fillcolor="#fbfbe3"] ;
0 -> 14 [labeldistance=2.5, labelangle=-45, headlabel="False"] ;
15 [label="IP-3 <= 59.0\ngini = 0.56\nsamples = 14\nvalue = [0, 2, 4, 3, 15, 0, 0, 0, 0, 0]", fillcolor="#92f1df"] ;
14 -> 15 ;
16 [label="IP-3 <= 12.5\ngini = 0.44\nsamples = 3\nvalue = [0, 0, 4, 0, 2, 0, 0, 0, 0, 0]", fillcolor="#bdf29c"] ;
15 -> 16 ;
17 [label="gini = 0.0\nsamples = 1\nvalue = [0, 0, 0, 0, 2, 0, 0, 0, 0, 0]", fillcolor="#39e5c5"] ;
16 -> 17 ;
18 [label="gini = 0.0\nsamples = 2\nvalue = [0, 0, 4, 0, 0, 0, 0, 0, 0, 0]", fillcolor="#7be539"] ;
16 -> 18 ;
19 [label="IP-3 <= 121.0\ngini = 0.44\nsamples = 11\nvalue = [0, 2, 0, 3, 13, 0, 0, 0, 0, 0]", fillcolor="#7beed8"] ;
15 -> 19 ;
20 [label="gini = 0.32\nsamples = 10\nvalue = [0, 2, 0, 1, 13, 0, 0, 0, 0, 0]", fillcolor="#63ebd1"] ;
19 -> 20 ;
21 [label="gini = 0.0\nsamples = 1\nvalue = [0, 0, 0, 2, 0, 0, 0, 0, 0, 0]", fillcolor="#39e55e"] ;
19 -> 21 ;
22 [label="IP-4 <= 249.0\ngini = 0.73\nsamples = 140\nvalue = [1, 81, 32, 55, 33, 5, 0, 1, 0, 0]", fillcolor="#fafbdd"] ;
14 -> 22 ;
23 [label="IP-4 <= 229.0\ngini = 0.73\nsamples = 130\nvalue = [1, 72, 28, 54, 33, 5, 0, 1, 0, 0]", fillcolor="#fbfce6"] ;
22 -> 23 ;
24 [label="gini = 0.74\nsamples = 71\nvalue = [1, 38, 15, 22, 24, 3, 0, 0, 0, 0]", fillcolor="#fafadc"] ;
23 -> 24 ;
25 [label="gini = 0.71\nsamples = 59\nvalue = [0, 34, 13, 32, 9, 2, 0, 1, 0, 0]", fillcolor="#fefef8"] ;
23 -> 25 ;
26 [label="IP-2 <= 58.5\ngini = 0.5\nsamples = 10\nvalue = [0, 9, 4, 1, 0, 0, 0, 0, 0, 0]", fillcolor="#f0f29c"] ;
22 -> 26 ;
27 [label="gini = 0.48\nsamples = 8\nvalue = [0, 6, 4, 0, 0, 0, 0, 0, 0, 0]", fillcolor="#f5f6bd"] ;
26 -> 27 ;
28 [label="gini = 0.38\nsamples = 2\nvalue = [0, 3, 0, 1, 0, 0, 0, 0, 0, 0]", fillcolor="#ecee7b"] ;
26 -> 28 ;
}
