digraph Tree {
node [shape=box, style="filled, rounded", color="black", fontname=helvetica] ;
edge [fontname=helvetica] ;
0 [label="IP-2 <= 239.5\ngini = 0.5\nsamples = 3060\nvalue = [2417, 2448, 2, 3]", fillcolor="#fdfffc"] ;
1 [label="IP-3 <= 99.5\ngini = 0.5\nsamples = 3059\nvalue = [2413, 2448, 2, 3]", fillcolor="#fcfffc"] ;
0 -> 1 [labeldistance=2.5, labelangle=45, headlabel="True"] ;
2 [label="Prefix Len <= 20.5\ngini = 0.5\nsamples = 1612\nvalue = [1296, 1248, 2, 2]", fillcolor="#fefaf8"] ;
1 -> 2 ;
3 [label="IP-2 <= 85.0\ngini = 0.43\nsamples = 10\nvalue = [13, 6, 0, 0]", fillcolor="#f1bb94"] ;
2 -> 3 ;
4 [label="gini = 0.5\nsamples = 4\nvalue = [5, 5, 0, 0]", fillcolor="#ffffff"] ;
3 -> 4 ;
5 [label="gini = 0.2\nsamples = 6\nvalue = [8, 1, 0, 0]", fillcolor="#e89152"] ;
3 -> 5 ;
6 [label="Prefix Len <= 23.5\ngini = 0.5\nsamples = 1602\nvalue = [1283, 1242, 2, 2]", fillcolor="#fefbf9"] ;
2 -> 6 ;
7 [label="gini = 0.49\nsamples = 73\nvalue = [54, 74, 0, 0]", fillcolor="#cdf8c9"] ;
6 -> 7 ;
8 [label="gini = 0.5\nsamples = 1529\nvalue = [1229, 1168, 2, 2]", fillcolor="#fef9f5"] ;
6 -> 8 ;
9 [label="IP-1 <= 151.0\ngini = 0.5\nsamples = 1447\nvalue = [1117, 1200, 0, 1]", fillcolor="#f2fdf1"] ;
1 -> 9 ;
10 [label="IP-4 <= 232.0\ngini = 0.5\nsamples = 266\nvalue = [225, 199, 0, 0]", fillcolor="#fcf0e8"] ;
9 -> 10 ;
11 [label="gini = 0.5\nsamples = 262\nvalue = [218, 199, 0, 0]", fillcolor="#fdf4ee"] ;
10 -> 11 ;
12 [label="gini = 0.0\nsamples = 4\nvalue = [7, 0, 0, 0]", fillcolor="#e58139"] ;
10 -> 12 ;
13 [label="IP-3 <= 149.0\ngini = 0.5\nsamples = 1181\nvalue = [892, 1001, 0, 1]", fillcolor="#ebfce9"] ;
9 -> 13 ;
14 [label="gini = 0.49\nsamples = 722\nvalue = [510, 634, 0, 0]", fillcolor="#dbfad8"] ;
13 -> 14 ;
15 [label="gini = 0.5\nsamples = 459\nvalue = [382, 367, 0, 1]", fillcolor="#fefaf7"] ;
13 -> 15 ;
16 [label="gini = 0.0\nsamples = 1\nvalue = [4, 0, 0, 0]", fillcolor="#e58139"] ;
0 -> 16 [labeldistance=2.5, labelangle=-45, headlabel="False"] ;
}
